{
    "bias": 0.12868667997385724,
    "weights": [
        -0.3294098272137062,
        0.8661671471640575,
        0.05945534724160709,
        0.36685542182859615,
        0.35160052327718483,
        0.0,
        0.5845106722349535,
        0.5845106722349535,
        -0.7681681390799527,
        -0.29330714090971477,
        0.061590554284011945,
        0.5797714593466374,
        -0.11575337871650147,
        0.35761238620212443,
        -0.1013687462165034,
        -0.8649063435664879,
        1.268301645522093,
        0.7725677312464373,
        0.31874127927111817,
        0.0,
        0.21420032084689564,
        0.4678023812810884,
        0.4678023812810884,
        -0.23017742305808989,
        0.461353209936543,
        0.461353209936543,
        0.59351594873459,
        0.42686733540791594,
        -0.14938955448739993,
        0.7151737933879948,
        -0.30926040904938246,
        0.39424497092002286,
        1.0275392330872695,
        -0.18551776488842162,
        0.22981406817284944,
        0.3639255687194655,
        -0.0276360217821635,
        0.720778678034482,
        0.010215908187584942,
        0.48141084558508224,
        0.48141084558508224,
        0.3545985711174878,
        0.3545985711174878,
        0.18218664427000097,
        0.18218664427000097,
        0.18218664427000097,
        -0.2164148714772533,
        0.4829369856703363,
        0.4829369856703363,
        0.5210402535360439,
        0.34243165695901023,
        0.25152327407410635,
        0.27677288812964945,
        0.49753758137276066,
        0.27677288812964945,
        0.4257426594109407,
        0.4257426594109407,
        0.4289430600033181,
        -0.5277602408544104,
        0.38285541564304465,
        0.520799481641239,
        0.01833443871440365,
        -0.10669212697332392,
        0.47050422282219234,
        0.4913592116773268,
        0.2334611681356576,
        0.2334611681356576,
        0.25850788973901884,
        0.12945618248099428,
        0.3303058356819775,
        -0.09014617034050842,
        1.2063152056244524,
        0.19192903107057055,
        0.2767728881296494,
        0.2767728881296494,
        -0.6566871726859004,
        0.4167993232237949,
        0.450708661954646,
        0.450708661954646,
        0.24986110780106352,
        -0.7165534258701508,
        0.0,
        0.0,
        0.0,
        0.0,
        0.0,
        0.8570874918998082,
        -0.6820772760591897,
        0.0,
        -0.4834277352754887,
        -0.32445118178519133,
        -0.32445118178519133,
        0.0,
        0.0,
        -0.4193200962573054,
        -0.4193200962573054,
        -0.5930737889497715,
        -0.36245705481482204,
        -0.36245705481482204,
        -0.36245705481482204,
        -0.8383154865417988,
        -0.8772824888699616,
        -0.4142574343825788,
        -0.4142574343825788,
        -0.34410393642883563,
        -0.34410393642883563,
        -0.34410393642883563,
        -0.9958083610768869,
        -0.8729136167718734,
        -0.6088235463108493,
        -0.7848010130021666,
        -0.7295737372612852,
        0.2655619166022944,
        -0.4305998309622138,
        0.47302466759285433,
        0.28509970206284296,
        0.28509970206284296,
        -0.05535182756321807,
        -0.05535182756321807,
        0.3427692942795898,
        0.19657087120171238,
        0.052264187875895936,
        -0.49388281375925475,
        -0.2524021144475273,
        0.0,
        0.22576612955266318,
        -0.37797708985335104,
        -0.07310334797951197,
        0.3998695745116965,
        0.3998695745116965,
        0.09203792574394658,
        0.5569225183391597,
        -0.13823976331760626,
        0.0,
        0.0,
        0.8455881912812452,
        -0.48120222358078246,
        -0.48120222358078246,
        -0.45452381126931485,
        -0.45452381126931485,
        0.0,
        -0.5726040854457987,
        -0.12611771315623388,
        0.0,
        -0.7968546357658596,
        -0.5488434692637036,
        -0.5428238660036121,
        0.0,
        -0.15766932786137222,
        0.0,
        0.0,
        0.6776915366970551,
        -0.03858606706062063,
        -0.6039299733901348,
        -0.6333032143490853,
        0.0,
        -0.7206212675224783,
        0.03622982415942048,
        0.7194592235614895,
        -0.29251861643624993,
        -0.8892309996715198,
        -0.7848010130021666,
        -0.8454441079983093,
        -0.6791509797445497
    ]
}